solver_type L2R_L2LOSS_SVC_DUAL
nr_class 2
label 1 -1
nr_feature 1152
bias -1
w
-0.1658186788783774 
-0.5142733797964862 
-0.09913287953593704 
0.1378123118895439 
-0.2793772828957273 
-0.5788212143683997 
-0.7419715529448765 
-0.6343593896956585 
0.5047892649013099 
0.1600475788979717 
-0.3361737972513924 
0.1394835200874043 
-0.04118896303478214 
-0.2849933028360906 
-0.07934432713516612 
-0.2451919204090831 
-0.1790855094968689 
-0.1342452656076157 
0.384779557872011 
0.220109384236738 
-0.1942707842800361 
-0.1770660234879999 
0.6108931448383157 
-0.263871066175293 
-0.4412302172316901 
0.08731046914187797 
0.09154638958924863 
0.1000945085810135 
0.01245739842524195 
0.2534976037712408 
-0.05203680345974656 
-0.204674079334259 
0.2607003314345037 
-0.1020967817261546 
-0.3103752940051319 
0.3365144576460518 
-0.394644447630608 
-0.3113177638980966 
0.09723915873548139 
0.2284123878436769 
0.2197780054822796 
0.1372431569472734 
-0.6331046414070547 
-0.0579725400129556 
0.07996004166923452 
-0.2299341887712597 
-0.4675447720974389 
-0.3012739880472896 
-0.2108223926420653 
-0.1174246851386346 
-0.3501115011411103 
-0.3130923270584492 
0.04348738169739154 
-0.2484352199911779 
0.2392185267635118 
-0.3477425191313437 
-0.05684760111675279 
-0.213505879200021 
0.4509552884153297 
0.3366365538324656 
-0.1720960605623045 
-0.02494823495780328 
0.4846723397199803 
0.4731205211671026 
0.02513670406759916 
0.3217805830189178 
0.1470627508287893 
0.2093547622465435 
-0.1202784648410583 
0.1551488718014288 
0.06859061327484499 
0.1369746728276621 
0.7547054083263973 
-0.03980579076798819 
-0.2484033839298987 
0.2556753015497977 
-0.4890783002279001 
-0.4816489728550979 
-0.1235207626141319 
0.004925493155319254 
0.4259795233293923 
0.7344586230816522 
0.1565054628577602 
-0.09500452374628539 
-0.148312001576598 
0.2149093724584438 
-0.01755260681910014 
-0.3089873376367581 
-0.6058162128279092 
0.2646338658637732 
-0.1967921345865597 
1.154268490557096 
0.3054071691116216 
-0.05191959515660049 
-0.5409387006829645 
-0.2608898173762413 
0.2469524590153037 
0.1092863166805245 
-0.02873650970443598 
0.2383066282836427 
0.8340150066830566 
0.4527902464890929 
0.1427177492707348 
-0.1414599518937993 
0.1513713166116948 
-0.03901836300496535 
-0.2933456959225682 
-0.1727809509425321 
0.004087759113462771 
0.00740024736300913 
0.04477711909858012 
-0.291005452614559 
0.312813371793718 
0.4815773184015387 
-0.1614848546877062 
0.1240810596269877 
-0.4985655518948581 
-0.5462051109111834 
0.05597921571785989 
-0.6355357583570161 
0.453289142707617 
0.6541615723533275 
-0.1927324606087823 
0.1312524397199263 
-0.03296305127470433 
0.005726914121347701 
0.4139740046036468 
0.1175345442552162 
-0.338957990964667 
0.4301544786164343 
-0.5181463544141595 
-0.2767324197388289 
0.5009489101865694 
0.4077280615959866 
0.0859303372481266 
0.4658497087858178 
-0.1919433837251701 
0.2107573423659371 
0.08077583817350965 
0.5850507126569481 
-0.5476464056362984 
-0.3774009755630076 
0.01810720884393984 
-0.1491750272009429 
-0.02503628432895091 
0.2490247475009594 
-0.009377057428923429 
0.165193354839804 
-0.3859403893028072 
0.3083914122748873 
0.01182864206495018 
-0.1966006126568767 
0.192540021797197 
-0.001791275491793423 
0.2019851506857042 
0.1983476291745655 
0.1990850367615697 
0.3152391758190665 
0.1574453460105723 
-0.06112299158589614 
-0.1953664362802377 
0.1829960239645451 
0.4612461650939685 
-0.2137024673177782 
0.07103473085483229 
0.3035661478888682 
-0.06085045234389606 
0.1700329081310328 
0.1560513104209416 
0.1222368724300885 
-0.08583185096835284 
0.4448470737738129 
0.7933003177930167 
0.5880800739831062 
-0.05942040229707924 
0.1767002792297616 
0.04382235758923804 
-0.1538718236194698 
0.2242679225991842 
0.2384731256181179 
0.7596826998968121 
0.6470458058589125 
0.1432302997305464 
0.6125967372726807 
1.163791719918923 
-0.2518932920214658 
0.5951216181902762 
0.2690743968880318 
0.5207817325053402 
-0.1729516385879522 
-0.08536915248321733 
0.1358661007095698 
0.3257710756848438 
-0.07475641510714749 
0.3031537767886544 
0.3000708469244202 
0.2724506683598739 
-0.4472166601842893 
-0.2039777060044708 
-0.4155647784953729 
-0.280322784452717 
-0.2453888185003573 
-0.2239466731306054 
0.5229255759844389 
0.2434702101577598 
-0.1138383988998243 
-0.3738200149878567 
-0.06658353005434076 
0.02170929591731875 
0.2928583351741221 
0.1521838127002783 
-0.4495711652341237 
0.2202834162967516 
-0.5240862853942241 
-0.6352981141227357 
-0.3858508200775912 
-0.5663279291013068 
-0.1291072276887191 
0.1916082864378726 
0.2377742063539204 
0.1299184331978751 
-0.7941929934636081 
-0.8541365985487858 
-0.0915331000840137 
0.05776164757692102 
-0.1015197121053713 
0.65631023211031 
0.5458376937727836 
0.7298202380266612 
-0.1994851141547861 
-0.7039365071310025 
-0.6189749880743507 
-0.4254293099621196 
-0.2310170288242035 
-0.07606811143649807 
0.2446032671805217 
0.64793692994031 
0.351005923024436 
-0.3378773803130468 
0.06973172025372083 
0.3004269055600575 
0.5249546567983744 
-0.4473688874273716 
-0.3708444333014924 
0.7048808460435043 
0.1264891809262413 
0.3214080630494842 
-0.06439495136242188 
0.1297706627979084 
0.3595547770269967 
0.7002881258616334 
-0.6695492373910804 
-0.4490042617932329 
0.3302851741348837 
0.5313773339242835 
0.6908421870616396 
-0.1852039910349626 
0.4296685307120734 
-0.2456001975148301 
-0.387680165319768 
-0.3497875663313997 
0.1230809140913772 
-0.162480817592888 
-0.335121266376426 
0.07954575757580791 
-0.3058307699611872 
0.3480811832658181 
0.7843032999087899 
0.3459410055800748 
0.1558047129187658 
-0.114386418750588 
-0.08967902151874302 
-0.1278644214159109 
0.07797746326101715 
-0.4821144631750093 
-0.6616528506587661 
0.1478547498184025 
0.2976463650854515 
0.1717870490374823 
0.245932504862173 
0.2223157998244617 
-0.1385548544327637 
-0.2184505955694514 
0.4739288742849992 
0.3316170636549296 
0.0588136567444167 
-0.5333150614058197 
0.05435392555588963 
0.1598822321886652 
0.5977043999105872 
0.09235933341439924 
-0.2204460569334034 
0.27824371238391 
-0.03911896225566457 
-0.2226321518753205 
-0.01027158698280896 
0.007330012576853934 
0.02082677393936324 
0.1762135075370324 
0.4613672355204155 
-0.06261946585977556 
0.227277860712952 
0.2043604691376686 
0.4352133563906479 
-0.144838569427194 
-0.6563456644309076 
0.09364464502894035 
0.1194839642609041 
0.1657146028404529 
-0.6655005727000598 
-0.2999250552416295 
-0.03014045765193895 
0.1715766586215465 
0.3376452245956851 
-0.5265322145228463 
-0.4446104222373165 
0.6751849012400205 
0.1441026877339135 
0.05195459488795016 
-0.5986888031737103 
-0.3734184661342111 
-0.05502084062028242 
0.09207993392007127 
-0.2060222566748422 
-0.1638860416073361 
-0.1644530216523999 
-0.6407899504051402 
-0.01102811065918254 
-0.3223722454514154 
-0.1863557655598351 
0.2390339662852204 
1.381465944931442 
-0.1371446844474707 
-0.6506749299217258 
-0.2159123949948537 
-0.4764793008213467 
-0.5073042713491052 
-0.5932419921215467 
-0.6047000687456827 
-0.2402809044487033 
0.9538782657464453 
-0.1498480924560467 
-0.5088557132859176 
-0.3979195302869515 
-0.1400827624091124 
0.2732215410590746 
-0.08996486711828458 
-0.6094656894668719 
-0.3079377233663316 
0.3355342897808155 
0.4121728700602835 
-0.1683224855409429 
-0.1193031285284832 
-0.1105491155943382 
0.1032528767090952 
0.126919147068863 
-0.2307942702149657 
-0.5260818080004774 
0.1179574798545856 
-0.1981977004598896 
0.369218349263034 
0.04343531590112523 
0.1916220446664094 
0.06619620894504943 
0.2264376678412644 
0.3740078853300601 
0.00939057754677162 
-0.02629169376295309 
0.0468835879948787 
0.1417843854286835 
0.3200197812900105 
-0.05763344257911295 
-0.2409069094741715 
0.2246129648292924 
-0.06932803150162811 
0.04776538626133934 
0.04934895211348254 
-0.09321839600820048 
0.5219021330581849 
0.2386956229194767 
0.1070281000887071 
-0.7479879934586297 
0.2182697847920143 
-0.03618980370954373 
0.02906026961686998 
0.1618372149445513 
0.157339785880781 
-0.537716710817958 
0.6103166271255005 
-0.2633255322321217 
-0.1012029325561872 
-0.5993229315965874 
-0.05445773408074355 
-0.2282839246063228 
0.7876179397048906 
0.07711049748205333 
-0.2123974369261135 
0.06252532739752824 
0.139326642921042 
-0.7183068271661728 
-0.8971877848343546 
-0.624680808032838 
0.04519380286043136 
-0.1954282481188067 
0.3152946878896761 
-0.4609523986918584 
0.1025987221775681 
-0.1772125439924826 
-0.0581086647361695 
-0.3021856270488427 
-0.4232602171803796 
-0.412508183710402 
0.5701791526480823 
-0.04581779893644404 
-0.1873206273720766 
0.1188556569766086 
0.20643297639623 
0.2212355614724486 
-0.310366233606763 
-0.6185751902930995 
0.2059838933915203 
0.02549271698812292 
-0.1939429771878802 
-0.2303877132158743 
0.156011448513421 
-0.08248521038934951 
-0.4155860076293852 
0.1812251499929513 
0.3985031602511456 
-0.4099183704603157 
-0.01186677748445406 
0.3056996349429523 
0.2233745752032134 
0.199998434821964 
0.09047776593100115 
-0.6571844683301858 
0.2775436940428436 
0.1550629964267203 
0.0728988999384593 
-0.2371693445716288 
-0.09432751061106984 
0.08870890661612964 
0.339041459828463 
-0.19270550285124 
-0.2518276990191945 
-0.3324301824513575 
0.01955904833318184 
-0.6934873329873984 
0.05922507165956224 
-0.4515963126549334 
0.2005783853464864 
0.2750712170606988 
0.1660865356745336 
0.2628762189456241 
0.2706560032319886 
-0.1386637163058506 
0.022611787816381 
-0.00621781814412193 
-0.1221111214052072 
0.00618888691144738 
-0.3842021154668054 
0.06331605442713159 
0.6015444898047175 
0.005583975664123206 
0.1541108065180867 
-0.7867106505526995 
0.619451334235526 
0.2751291861105194 
0.02660847527433777 
0.2990318138126234 
-0.1931384150518201 
-0.1575892396001043 
-0.6536936054556648 
-0.4652509699451264 
0.3610718515883043 
0.9699892838297836 
-0.4959829788891965 
-0.4634269039100423 
-0.2307413257261193 
-0.04592435197659989 
-0.2553302317123748 
-0.3945909361725673 
-0.08062396525113082 
-0.00502791618029433 
0.8207971474754635 
0.1692844961460164 
-0.3943282567805904 
-0.3660126677575877 
-0.1723498855559527 
-0.216566161316602 
-0.1948405290978042 
-0.5890406435880986 
-0.1298598884536731 
0.2318268950007685 
-0.1877491729753628 
-0.3358582752229998 
0.3616161701975694 
-0.1163590226525087 
0.6729361321861539 
0.3444487961573772 
-0.07301543079098058 
0.01564187990552518 
0.1058460689187983 
-0.4872048552097348 
0.03143672949260754 
-0.0600167787987777 
0.2003672405822781 
-0.0765444391928896 
0.3107878401877826 
0.2596996863157171 
-0.153844272608264 
0.3279323920636363 
0.1951902304107378 
0.3995610462537833 
0.5052417233743501 
0.04669061051627167 
-0.03893220314540471 
0.1556036256789988 
-0.09731607467028786 
0.3829237499135449 
0.2942642125929891 
0.03563009353288061 
0.1465538593215735 
0.5355486395037612 
-0.09396625659128868 
0.1109709464397834 
0.04797174951327053 
-0.2172419797331196 
-0.2836183483426615 
-0.0007520637224620498 
-0.06645351053153223 
-0.1998570157363597 
0.2629657952062069 
-0.1992644511813234 
-0.2288259866645707 
-0.3771654968214301 
0.01885275664799617 
-0.05643225152599037 
0.6223901247003664 
-0.4003602791154368 
-0.1756162348347433 
0.155416088241893 
0.08494649768529985 
0.1359181760924539 
-0.5977956669258553 
-0.2272337361674576 
-0.945807469109512 
0.5421390322918093 
-0.2660593936204375 
0.001844570691008167 
-0.06047571732362613 
0.1855738230930591 
0.04984691031424355 
-0.1910949910906795 
-0.2364978212948538 
-0.01945656002325447 
0.7433578078838491 
0.2368719879795346 
-0.5980682499624581 
0.2352658478945371 
-0.1608112927024465 
-0.5800990094802502 
-0.07730044488076242 
0.06031259241336184 
0.1031058865533016 
0.5795472318561886 
-0.09565195215556369 
0.2372167585167563 
-0.009920719063524742 
-0.1537616451199488 
-0.1255990581408121 
-0.08662379512372267 
0.02402585572757162 
-0.07235627098990308 
0.2088961197679063 
-0.1962555237248969 
-0.3159772843868958 
0.2285912619832211 
-0.2443266938809635 
0.02192099423505167 
0.03248104626611562 
0.1990339224355347 
0.4150059219881287 
0.06043054131300196 
-0.08728687041765297 
-0.1411492188904067 
0.3973627847477508 
-0.2429867488170504 
-0.5349138101599423 
-0.5011410539691366 
-0.3684661050996452 
0.05132910169957027 
0.665643894919263 
-0.09816565803196502 
-0.1020786612354284 
0.1812345503222098 
-0.6256230638148104 
-0.08366317130876857 
0.2915369344338402 
-0.02174068045880303 
-0.72635147545226 
0.3722366758349194 
-0.05945915771013149 
-0.6437449180440468 
-0.0603073924485412 
-0.1931767029209133 
0.1113187625253895 
0.3566609622831975 
0.04268232446234075 
-0.4720730742062748 
0.4023796455707889 
-0.8070441726477333 
-0.6119096041480474 
-0.33654833053344 
0.03200472086553147 
-0.09589378062120937 
-0.1707019105646781 
-0.3396667748110336 
-0.5155450372212572 
0.7054783865903401 
-0.3449199764948233 
-0.3088355919981285 
0.5261749831939231 
-0.2810741757981942 
0.5674492602001627 
-0.6065264062036402 
0.1158929236090886 
-0.427550919007914 
-0.01633132800554609 
-0.3254610247397829 
0.07044705964695812 
0.1853157190389357 
0.03477820854469654 
0.1929158929576122 
-0.3426029758896658 
-0.7212733471523967 
-0.001688077182697949 
0.4797946458301511 
0.02825536921978618 
0.4286801482016827 
-0.1912396315339477 
0.4022621077524608 
0.8013941985436792 
0.2855864441462002 
0.1955549362083937 
-0.1356176297123818 
0.1579961047218236 
0.07558935600891051 
0.1317031703970637 
-0.2861409337109041 
0.2354411267443071 
0.08374096595839696 
-0.1451340416541776 
-0.06070363799934236 
0.3654707852741775 
0.493901921961267 
0.376731358170238 
-0.1147193998815724 
0.1780561828240274 
-0.7050079156498189 
-0.6923990117840422 
0.03839780003677154 
-0.09798847348677756 
0.389279494215016 
0.5483176161604191 
-0.2997069962128266 
-0.1611224259714129 
0.1795473304900592 
-0.03753985034007216 
-0.1668183572557552 
-0.3581952359828576 
0.4077542708666699 
0.02814557780158218 
0.2592741553324628 
-0.1634297814741819 
0.2552455285926365 
-0.1944083927154762 
-0.7311349397372378 
-0.0004072161819448648 
-0.7474464923543457 
-0.4396288360746579 
-0.4430968217985769 
0.8202042269135975 
-0.06860149285186298 
0.1601937138103984 
-0.08590601280870845 
-0.4378664008183494 
0.06136559605084358 
-0.8221552405824613 
-0.4137170968215729 
0.1404270774519708 
0.1444769060632385 
0.5376935851272627 
0.1181245241064745 
0.3548197562624598 
-0.1270635523554849 
0.4860300358326397 
-0.1374131131219275 
-0.3306404043983222 
-0.07293287274822684 
0.8689510379448532 
0.2457013662529512 
-0.1714361896234002 
-0.1317391390088146 
-0.6001573509431211 
-0.2686629287675823 
0.05712246169990515 
0.04113892540790177 
-1.104465619526255 
0.1721259223654328 
0.0974924776369023 
-0.153163277531123 
-0.2832140527676617 
-0.1820822775910504 
0.05774225217302194 
0.01572241723173271 
0.01479107590181877 
-0.4593451722921688 
0.3537874118536789 
-0.1523559784909231 
-0.1396353719558072 
0.3267793334480683 
-0.1848501683549826 
-0.5209702302824664 
0.1414316241200432 
0.0899908994052681 
-0.1726509096992581 
0.1254837560502889 
0.2986796361684009 
0.2376747609949483 
-0.4152176967557611 
-0.8650479643257253 
0.06195412357721591 
0.1581228237670709 
0.05616612897260906 
-0.1462233775412831 
0.4865091235493607 
-0.3222690377564726 
0.2553675398458876 
0.6262884694077261 
-0.003678188205953119 
-0.3893412054458564 
-0.5574830872017135 
-0.1790140450636635 
-0.5360151709775984 
0.2316794001188635 
0.2407463897444433 
-0.101535843511391 
0.5710560905806631 
0.05485767861633377 
-0.7205330097603102 
-0.1998465919971212 
-0.5262464676637052 
0.01311927008241404 
0.4842206226830698 
-0.0001296480569585777 
0.4186817046341728 
0.2072476400269197 
-0.4305166892945372 
-0.2443431702571696 
-0.3234246559292685 
-0.2939880368939126 
-0.06460670773906833 
0.6023033113347527 
-0.307323149578996 
0.3070485833599804 
-0.221967140566462 
-0.2984359747290731 
-0.4680856764047175 
-0.1524796555299517 
-0.2888602343565137 
-0.7437221038523814 
0.4562178656353564 
0.2293815352818192 
0.2424749586103555 
0.4718992895727275 
-0.1527139008304399 
-0.01853530407905593 
0.03461412887171855 
-0.04854377080492892 
-0.902077628141166 
-0.5981099667426426 
-0.1088966737040682 
0.04112140321294819 
-0.23892877830087 
0.1922636405945948 
-0.05271045968353757 
0.2026658244357297 
0.4066153439823288 
-0.1352769824606787 
0.0502383172121649 
-0.4406512448159168 
-0.3071199515788972 
-0.4696841290248762 
-0.01873253038598433 
0.2593312674987124 
0.8674515235025239 
0.2429387186195115 
-0.2953456187715007 
0.1182146657518892 
0.2034943443289968 
-0.05329031935712755 
-0.07289980541003412 
0.0317372651763192 
-0.02251578992561133 
-0.4263271194136611 
0.1653256802416166 
-0.0337670005423925 
-0.1321182662054933 
0.32002467819238 
0.2402092177291287 
-0.08953033905031162 
-0.01189551145587707 
0.3412427121625327 
-0.3017267540307999 
-0.4865876497432772 
-0.4762807603450366 
0.4213941284110642 
0.3185508497283729 
-0.3030871303670591 
0.1066922027264608 
-0.2675057682223349 
0.183590812562167 
-0.2588203693123629 
-0.1492529491051235 
0.143383964611686 
0.8101405818770552 
0.09685390606005302 
-0.2299652185851596 
-0.05233101983532789 
-0.06160044759763393 
-0.4754313951603263 
-0.3559501924316707 
-0.4802405439595211 
0.0215116812209168 
1.009400814851845 
0.0954965132515649 
0.2604314708184448 
0.2564501971820139 
-0.25477441857719 
0.2216899317782383 
-0.5509360252178457 
-0.1597409017523613 
0.03933677431007571 
0.801113200001265 
0.02867554651242368 
-0.400370650187351 
0.6606541827681031 
0.03032597587812695 
0.2867600991085271 
0.02899841672328195 
-0.09634060113748952 
-0.2587914293611535 
0.1679718518424818 
-0.3473879694760343 
0.47789036457694 
-0.1340308243136061 
-0.5552766561217101 
0.2617745072279832 
-0.009943181080910789 
0.4025531397580946 
-0.1511195319982865 
-0.3239349648002329 
-0.1926279651788801 
-0.1082735319792309 
-0.2761727479589152 
-0.2886678566216508 
-0.04917322893975735 
0.1346363282781486 
0.005267608615042759 
-0.04644602719863263 
0.04056989801253159 
-0.5827850212556903 
0.5870762581535862 
-0.1758486464965327 
0.08540338738721849 
-0.2899631255984203 
0.5250998813083034 
-0.2255122669459182 
0.0349881222755305 
0.2947142889411211 
0.267254594212781 
0.09443822393059596 
0.2410214279441788 
-0.2027873150624546 
-0.6226143676810275 
-0.3578727459138006 
-0.4457180472339699 
-0.5089046467356348 
0.2808260092809049 
0.1611766977096498 
0.145166136905911 
0.01129812198700974 
0.3044229850877234 
0.07963621624822832 
0.02057876486941832 
0.2004570871713621 
0.33758722576447 
0.7119193582577968 
0.5824469375839544 
0.6133858450343882 
0.3559362953515123 
-0.08399778510673464 
-0.5602414373291372 
-0.3312587322294197 
-0.1222216955511876 
-0.1828817775746392 
0.7533084669240884 
-0.1074582206039042 
0.04885379927151458 
-0.3287115462202074 
-0.3096263691435203 
-0.1819246537555742 
0.07624804285507707 
-0.1146004611341668 
-0.4976728347549812 
-0.2387882487222096 
-0.1231984089805049 
0.1782596743724226 
0.005960414907828267 
-0.2676671580630586 
0.05555807079616756 
0.03534583808847135 
0.2153629301916185 
0.06576535843606132 
0.2671830844157909 
-0.2563472886719563 
0.1393769997606028 
-0.1674814448231004 
0.2032528725769297 
0.4443783138457139 
-0.4067802733582643 
0.2048369997289598 
0.6330124996652249 
0.2568769926314746 
-0.2853408085181731 
0.3106578551401341 
0.2063855709129647 
-0.1001924927619747 
-0.2181993147420571 
-0.1177997653200886 
0.156619237417894 
-0.01524866518457119 
0.5569332817330589 
0.2307700598195252 
0.1134694646626925 
0.126769956655625 
0.2053124457225725 
-0.2505348958181176 
0.1892962282174716 
-0.2176178694149594 
0.1163820214703667 
-0.06922494707502816 
0.2501491210681874 
0.3857351539657936 
0.1977311888825322 
-0.6545816353771008 
-0.3388756084487425 
0.04863586725026123 
-0.2777960324963146 
-0.1150247075062697 
-0.275884390104536 
0.1218270350988651 
0.3810607251001598 
0.005583297652499096 
-0.3177620936735452 
-0.04701375849182714 
-0.8100163296403577 
-0.3811116291679831 
-0.7673064296339942 
-0.1595271818876763 
-0.05917276255884071 
0.5001864593872134 
0.1882909744890431 
-0.2215774789590943 
0.2438876376941672 
0.2245825923974462 
0.2948581748779394 
0.2366359505625888 
0.8370874216398269 
0.1140728015243748 
0.00203352727748024 
-0.2258605939046542 
0.07266943103435272 
0.2017338726384028 
0.1008913209857418 
0.2482961889449608 
0.4021609280220767 
0.02181454723810635 
0.4645914136398085 
-0.3732456670358825 
-0.2545070656354271 
-0.1355085227516221 
-0.01351230843406336 
0.008383993208463926 
-0.1899998629979677 
0.6482729583768058 
0.3793532792702921 
-0.5359444996747967 
-0.1726823557410214 
-0.1116042027886411 
0.3602322963138219 
0.3257122215588598 
0.1343497005408054 
0.6268356407662959 
-0.1769865388965882 
-0.114621956579423 
0.2243438090701902 
0.1217025213701266 
-0.5486240981550071 
-0.1686087944386607 
0.03846939240675518 
-0.315530568853205 
0.2023249026098508 
0.3655539110717761 
0.7986986130013881 
0.1472083758122366 
-0.3690251719685525 
-0.6237350924681943 
0.4003923817782533 
0.4923015551986951 
0.4819058577166751 
0.7866605430307898 
0.002531887755952108 
0.2175674117272052 
-0.07309839123478058 
0.2212298614329987 
-0.3427004183029631 
0.4127451785314523 
-0.01065980443075717 
0.5398742314859858 
-0.2345497941594712 
-0.1517562856274467 
0.3856193968876147 
0.8193705205230613 
0.3143112210286969 
-0.1224022233180254 
0.1680537448276108 
0.01825074654647098 
-0.2734210452172717 
-0.3079862343681848 
-0.1630254548404482 
-0.2416524007867792 
0.4407705329307697 
0.3237020216801449 
0.1265214370683203 
-0.1942388240282738 
0.1273402516646866 
0.1583667505070051 
0.3337777629057196 
-0.1359147407050362 
-0.09162750879696133 
0.3185907934032517 
-0.1088627646907334 
0.1958455900478524 
-0.1860905206722004 
-0.2451493457767137 
-0.2211092147032431 
0.5677298744974643 
-0.4585081208628257 
-0.1366348323520918 
0.1072467557851916 
0.3806755405168403 
0.2617153148952275 
0.594300371323386 
-0.08189962411889158 
-0.3516480243794538 
-0.1605591209296651 
-0.1327507194230054 
-0.344160393020685 
0.3160254461406192 
0.2218351347690276 
0.232470939974411 
0.1637588264891997 
0.3594768559061235 
0.00676842372670537 
-0.2186184045880923 
-0.06969470977683484 
-0.1708917639189226 
-0.2090267327352548 
-0.7121262082654525 
-0.460756140727804 
-0.2357083346704428 
-0.2608977951261829 
-0.04644241668038083 
-0.1789144522395068 
0.2202459390053191 
0.3063012592292801 
-0.5007269801970481 
-0.6292486695803955 
-0.4874455511216068 
0.03611726879410507 
0.2390258428841266 
-0.04777007370429352 
0.106763589170714 
-0.1831156870124056 
-0.1984667569240595 
0.2072451685235412 
-0.5858063710281228 
-0.007339053720773821 
-0.1596235438688347 
0.4160732061182452 
0.3443454655929654 
0.8035411335043846 
0.3989768318680209 
-0.6330857101930107 
0.08081542097663469 
-0.1835742199999286 
-0.0710073159279267 
0.07849783609703036 
-0.3700853627283561 
0.6832868355286387 
-0.1296814724289216 
0.03171640334312548 
0.3634510737002198 
-0.01848106135483956 
-0.2045964339176868 
0.5442157107847382 
0.4587280522309567 
-0.3665885270292066 
-0.05581414081656114 
0.6739273727456495 
-0.2033825924144601 
0.05224546480064061 
-0.2190513579470587 
-0.6257082907393061 
-0.08012370365573057 
-0.1268150844301538 
0.212469690697569 
0.01880772611868702 
-0.05480372613552278 
-0.2316227313229356 
0.1944042873430541 
-0.2440117525053034 
-0.1952818522692321 
0.4808790164564976 
0.2546443806363394 
0.02749359942709352 
0.2356689397393408 
-0.03612551562711867 
-0.4051237925035822 
-0.3795784703729761 
-0.05116056535579547 
-0.8310987463993639 
0.04350567402995361 
0.7009023750654064 
0.1336408366278593 
-0.4709961376414004 
0.05372426468251015 
-0.5403424418161175 
-0.08730180350144211 
-0.9552179297917074 
