solver_type L2R_LR
nr_class 2
label 1 -1
nr_feature 1998
bias -1
w
-0.04260445335487379 
-0.3405620540479258 
-0.1525135804295516 
0.06357323155583881 
-0.3489894437851009 
-0.5577532824493078 
-0.6770291457396759 
-0.6341242015845094 
0.8525280139815224 
0.2648765068126012 
-0.4545117986184105 
0.06053429860279265 
-0.14294216191339 
-0.4791474578395592 
-0.3339599452145439 
-0.3722669779019461 
-0.4049795437691022 
0.1412238632902406 
0.2572214669771328 
0.09525394341875915 
-0.1779813575940298 
0.0532768242385892 
0.4909603237766139 
-0.7272259948109572 
-0.6033206775275921 
-0.124459079301377 
0.2033277546185797 
-0.005490399882729542 
-0.07808992592519064 
0.2888006761352111 
0.08985787513961989 
0.06049193663192593 
0.141857964757187 
-0.1960323297934441 
-0.408821601106667 
0.2436155909443687 
-0.6446600728311125 
-0.3904018783597186 
-0.0850478361612924 
0.4538370828609143 
0.5306756029791528 
0.07234773846866061 
-0.5727870677641286 
-0.2424540032951989 
-0.1191392807719645 
-0.3670048413269084 
-0.5548837146158166 
-0.4631360841671839 
-0.2304912776021346 
0.08209817553676431 
-0.4157925011130918 
-0.6000708364801025 
-0.2107375064772001 
-0.06164923028936597 
0.06351393254687475 
-0.4764533238997332 
-0.1868559364697703 
-0.3629626587066433 
0.5670896144397974 
0.05830691265409876 
-0.3251239418874894 
-0.4039327932930044 
0.266427567487073 
0.3910548875129939 
-0.05883286725641425 
0.09085465111767493 
0.06918038982560666 
0.3615406811777728 
-0.2676173058893308 
0.2119007549080231 
0.05471528600557464 
0.3651479857416337 
1.077466285670839 
0.07971455397097334 
-0.1013062422285779 
0.2655752550990346 
-0.8526232408302017 
-0.7282695752774302 
-0.3092703722119686 
-0.2522210186374478 
0.6417551986614877 
0.961465161455733 
0.4920483254558872 
-0.07197785130593329 
-0.1710815594751887 
-0.03662057879505784 
-0.4103383188871635 
-0.382994838804369 
-0.6761103100697656 
0.4920792245691304 
0.2444242967948965 
1.203087030606976 
0.3764113995393886 
-0.01681052024892971 
-0.4758647400121384 
-0.4615873419059597 
0.06236116050284282 
0.1188069375241202 
-0.2902560330877682 
0.7034028318599362 
1.365606836517859 
0.6456599634541894 
0.2203087704209598 
0.06919276260989755 
-0.09702172616805427 
0.1159184362590236 
-0.03622630434255514 
-0.04884489388576576 
-0.05758852229567801 
0.07146816322043599 
0.007613282493154627 
-0.09513615684763996 
0.3546075657648114 
0.2828967768810573 
-0.02240928394429759 
0.2636625014695611 
-0.6028814171566508 
-0.5246908563699945 
-0.1529586640991787 
-0.4117372053644701 
0.3831949442688147 
0.6283261820948206 
-0.1992231901867345 
0.3722041083853709 
0.2584586193833823 
0.08121077606295804 
0.3377325938768824 
0.2450587371787969 
-0.2892951468594425 
0.3574396668801731 
-0.3320784784875799 
-0.5160338633665733 
0.2429061472727053 
0.2743631212852723 
0.1216141920802742 
0.635520637593818 
-0.05443919236968048 
0.2731996539304357 
0.2902808938689919 
0.8009957979767581 
-0.7296280701105162 
-0.3599692495656564 
-0.01161218673613408 
-0.2142809636914871 
0.1450124582203264 
0.2062471477856851 
-0.03585276993750448 
-0.001537234636849974 
-0.4756578623384453 
0.1809594125485091 
-0.08149212140397326 
-0.2498952209757483 
0.2567234812522073 
-0.03156616409026093 
0.2136796984709933 
0.2340673843527874 
0.3822613930457537 
0.2159925017139282 
-0.06667892256934513 
-0.1798569786818482 
-0.2857459413975711 
0.2524703968295048 
0.6169331037686444 
-0.1801591926834161 
0.1119414117725296 
0.4879445237055659 
-0.08279376824261392 
-0.0005232357104225007 
0.2853966305760455 
0.5798362853749031 
-0.103859109467787 
0.6875295649901638 
1.069855673942562 
0.8497455691968467 
0.1440463795774033 
0.1415232033236788 
-0.1445760265177346 
-0.140857411203186 
0.3677330770016618 
0.08523006978636669 
0.7182181373611966 
0.9848480916288482 
0.4706194001779591 
0.7320607826996985 
1.033688816690584 
-0.06842479226141145 
0.9537221098727271 
0.5821867713649508 
0.4175794551180315 
-0.4880614678712827 
0.166657289707646 
0.1352812935175619 
0.5079265587922219 
0.26967864214401 
0.4009856720968306 
0.7542234724076878 
0.4651646302024127 
-0.8475950076808895 
-0.5092969757762952 
-0.2775848851651353 
-0.3042786461823148 
-0.1310300376366275 
0.003061620808516644 
0.5254563793554357 
0.2267649991041813 
-0.01571540347017077 
-0.2515243252599406 
-0.04062327039463917 
0.06142259869624569 
0.07411975862651926 
0.2074290314613898 
-0.1979006881290936 
0.2111956551954897 
-0.5904398829367109 
-0.5016358682835499 
-0.4428365597693279 
-0.3509829979780543 
0.2084545465481701 
0.3249976443995676 
0.5478510969530267 
0.3263450727152427 
-1.062152073016435 
-0.9070198472340482 
-0.2677061500879389 
-0.01298639403367913 
-0.189130913564141 
0.9599888465288779 
0.9403105660962291 
0.7896934524496101 
-0.4944266063181493 
-0.8116818661060524 
-0.7492946431957691 
-0.4319786881915434 
-0.6338037959849664 
-0.1492495868279326 
0.6337506463458042 
1.16006856830211 
0.8189125044378006 
-0.2514481647264826 
0.06798131788717392 
0.4042446116482523 
0.5755673483770187 
-0.7865712319601597 
-0.6940226530081225 
0.9470945097271032 
0.7335532976571786 
0.4526529990159717 
-0.2575304286359511 
0.3262412323902716 
0.5349774980645301 
0.8261718599199831 
-1.465196324753812 
-0.4618325786455142 
0.5698809019612562 
0.7795724718226785 
0.9395217085998943 
0.02691662018978044 
0.6353229753697525 
-0.02548577753429371 
0.08498797260058315 
-0.6276757476027657 
-0.1388566799915042 
-0.2603237554537673 
-0.2022753056802284 
0.05823502646255158 
-0.3854109226314713 
0.4666115285123998 
1.201906564667165 
1.091749240245366 
-0.05865425083755502 
-0.06605823772139004 
-0.187675879294069 
0.001387715506771725 
0.0898980932195227 
-0.7336964817406434 
-0.8067302106989542 
0.2336050233360021 
0.2172725722879486 
0.3382834573716809 
-0.07415858802206929 
-0.004693207853741665 
-0.09807469199454119 
-0.1264853259949885 
0.3320192224425441 
0.1750349581039189 
-0.01916579113134018 
-0.2935209458490411 
-0.09602764224519052 
0.3465304660405942 
0.7152637295521089 
0.08217872916449072 
-0.3584016205044008 
0.4699201125850138 
-0.2410600073281079 
-0.2683639477396866 
-0.02407353999104292 
-0.09002271042506478 
0.1290512503233074 
0.5722457473261601 
0.4622614676018204 
-0.06195805252005294 
0.3473030112766354 
0.08675972493788471 
0.3115290829006397 
-0.0577241291630706 
-1.296679878831924 
0.124565446242329 
0.6084625312604781 
0.3489896811048202 
-0.7284194082554992 
-0.5798054023009016 
-0.04239050551661537 
0.1358097515893629 
0.5006200060798548 
-1.027671304035247 
-0.5664621469535089 
0.8507467742990559 
0.02883483126112794 
-0.1288309737949054 
-0.9338716358945428 
-0.1548188006323836 
-0.002336319113625189 
0.09615868683285446 
-0.6599042694893474 
-0.4172740223099634 
-0.07051559796629972 
-0.6708470799731456 
-0.1983419557361278 
-0.8542234165870195 
-0.2786174098086855 
0.4741372124129117 
1.758810659593345 
-0.06841131745133623 
-0.932259877012823 
-0.1820864510645807 
-0.46895619875902 
-0.4134438875796638 
-0.9289311027951728 
-0.7472383041422955 
0.02491926273496725 
1.429142117718044 
0.006673098786385862 
-0.9202840532163612 
-0.4828839772225567 
-0.1695613649846195 
0.1443133101214802 
-0.3391578605006894 
-0.8134012041274783 
-0.3156786578823947 
0.6774061532233794 
0.7163407134299364 
-0.4165701843446727 
-0.02467419150314849 
0.08674827367227485 
0.1122160116259611 
0.1495967562737892 
-0.5528285268779495 
-0.4971480228195421 
0.1246234062214896 
-0.2823498252154832 
0.6247438964320909 
0.3013593110660376 
0.1806634824424492 
0.1240781782014908 
0.7262892280235487 
0.1764820152187602 
-0.07646103225925052 
0.1043386404116835 
0.2163244016396734 
0.1575795056370335 
0.5511018211846833 
0.02215937384326228 
-0.1918939781781117 
0.04869831126837941 
-0.2076893057952821 
0.06512979800994792 
0.03672440623543194 
-0.3482224444011908 
0.5889301416058781 
0.005861142056676346 
-0.05317347145291132 
-0.9087934427960582 
-0.08355176982381578 
-0.03312822467985597 
0.08628768124937737 
0.4834975573901958 
0.08594328094154964 
-0.482968048438858 
0.7341649200061425 
-0.1544264315195979 
-0.1682124381999265 
-0.8509259129859797 
-0.3211524565404872 
-0.0869547004489042 
0.9989658090193587 
-0.2484938880627158 
0.02429614292188046 
0.2402510021011454 
0.2331617780991174 
-0.7018185934417055 
-1.455780757077799 
-0.702973477810526 
0.2027036430219494 
0.1646642139068072 
0.6362428638781501 
-0.5364707109659644 
0.01970096314343526 
0.008644090381012465 
0.07433698235669485 
-0.5364053770443169 
-0.5945065253450947 
-0.2761932012133385 
0.8876292172767347 
0.1988827154119816 
-0.4217706802642168 
0.2217993522485459 
0.2228073999494896 
0.2309219705521774 
-0.4012541811914164 
-1.085536810634213 
-0.01177155692171099 
0.33195071334897 
0.1031696352335958 
-0.2482307448804871 
0.01637500332463494 
-0.1948336741743919 
-0.3089546497779791 
0.5304470665365328 
0.1029172552836582 
-0.3903308767403515 
-0.04086449146166787 
0.3911255595426671 
0.1725379874822182 
0.4932159073315955 
0.1130714775193968 
-0.4982811632748074 
0.6293704603853119 
0.3258797207158744 
0.1727726912930514 
0.009020738567629832 
-0.289724218536277 
0.1639883410197671 
0.5007946258330842 
-0.151984419164209 
-0.09697992924025368 
-0.6201531664793964 
-0.2113045023609494 
-0.5909139031435279 
0.07432506372418708 
-0.4453641353881661 
0.3062081072226833 
0.5192210074215198 
0.2081237523682041 
0.2503351562913466 
-0.0678110836660866 
-0.324918408566421 
0.1180356530418235 
0.2160685991484293 
-0.262594601974416 
-0.09778592617609341 
-0.1829272062678616 
0.1456006501907139 
0.4421699180056948 
-0.1901313465417425 
0.1682378076868719 
-0.3636546656560619 
0.8068397486821518 
0.2295650973533926 
-0.06563790679206012 
0.3163524571185287 
-0.1476858544457137 
-0.2836483078023537 
-1.031002852596473 
-0.7579475296691252 
0.5118469768319255 
1.218197708424343 
-0.3639352630005985 
-0.3509565620763146 
-0.09118892773475554 
-0.1071742693173498 
-0.3013685356110976 
-0.7472040824306633 
-0.1680504955504663 
0.29794547238876 
1.348824966898092 
0.3348431264881451 
-0.6274856075509173 
-0.2114164426093948 
-0.2209389724170851 
-0.105308120334543 
-0.3478723393313991 
-0.5822197420212474 
-0.1054156589917856 
0.5429658872097186 
0.03961494301340245 
-0.4412576849152761 
0.3068255666502994 
0.1492518772622017 
0.6780947792319528 
0.4605817953545375 
-0.04001568897069987 
-0.1272934442954413 
-0.1323991091418551 
-0.4796195559562995 
0.01379358020616226 
0.1682186687172071 
0.2906305272292712 
-0.2117788223919796 
0.4226280670895543 
0.1717146693975829 
-0.2560535949378876 
0.3279179324311126 
-0.09740932340315733 
0.5803831472093138 
0.8802952413273605 
0.02849000783735867 
-0.04428099364477612 
0.05798255647400589 
-0.289322627483775 
0.1673517019491326 
0.3808294132485807 
0.04918425580017069 
0.4931009852803983 
0.7910906183245523 
0.2288283931659403 
-0.0471520292215663 
-0.09666379770671304 
-0.5224961982381737 
-0.0845425129640936 
0.1641226788220186 
-0.498374135831391 
-0.4719737683960706 
0.3635682988746547 
-0.1154820352860846 
-0.3426513242961631 
-0.6638864047674367 
0.04915332129286029 
0.1066522814527631 
0.5406250386270284 
-0.4788617293813276 
-0.3836330555418264 
0.1012771627322746 
-0.04617112069737381 
-0.101628366563061 
-1.098876246013134 
-0.478900628774075 
-0.6217727437616285 
0.714963901273706 
-0.1256205963764561 
-0.07120749219404111 
-0.08617680914133691 
0.0612927795080191 
-0.06155460162077192 
-0.3782585205867361 
-0.3796715244179369 
-0.04725811435009211 
1.147641777136885 
0.578063992357298 
-0.9139571484897933 
0.1285710511897534 
-0.1336441081218265 
-0.7761584068750339 
-0.1398560163425144 
-0.1156009807724765 
-0.04694947697404963 
0.9268466491169265 
0.1909423500971312 
0.03805619812428625 
-0.02440503869246732 
-0.1637615495652292 
-0.04741999217463791 
0.1243101400905935 
0.0250112185307273 
-0.06504653082127163 
0.02063129253072682 
-0.3104265204840021 
-0.3194093502547088 
0.2637100868191689 
-0.3072791973526183 
-0.08281679503117957 
0.2398175622354455 
0.1115966897259146 
0.5244767666466585 
0.2494440263113917 
-0.06136578838101181 
-0.2959877671451327 
0.4520451426032862 
-0.1930994034017057 
-0.8969926221142313 
-0.1861248918976058 
-0.4427982252750178 
-0.02663537170318192 
0.7141075766160141 
-0.1104339085370215 
-0.09143613434416076 
0.3737377551814273 
-0.4779791199558292 
-0.2444610216878834 
0.1925837332317316 
-0.06477551079088542 
-0.6872307493797253 
0.3251526476036595 
-0.2518329008435671 
-0.8207671667225099 
-0.2629332095114881 
-0.5164854051531377 
-0.03998120001421327 
0.5623308421739952 
-0.1310498411545017 
-0.485145853637759 
0.3212809770305852 
-0.8614763649303756 
-0.954408836921794 
-0.4684203818153005 
-0.3516124630132935 
-0.009106759468316615 
-0.3474734702294136 
-0.3782977134221724 
-0.379308421586721 
0.844925203890177 
-0.6159263780486482 
-0.3064091763130268 
0.529538173011757 
-0.317371058107893 
0.6535756781687703 
-0.705445692519383 
-0.1579063200033302 
-0.3806755443019068 
0.4890747732213194 
-0.1553694096297009 
0.2109859381915914 
0.2359939605825065 
-0.0705524556186494 
0.1662131247957239 
-0.5291692009751024 
-0.9615282648763117 
-0.1578444992571833 
0.5741810881709356 
-0.03072992887128739 
0.2321378702348109 
-0.03733114741561393 
0.2762226026006902 
0.6778327349554609 
0.3332183565624797 
0.2316747789614355 
-0.1334338168269497 
0.1998286080192551 
-0.04187045620761293 
0.1845146867016926 
-0.2069778365355288 
-0.00987204261617923 
-0.4163864419828472 
0.1188125870606116 
-0.1698693543840149 
0.2403282392440526 
0.5945386874393194 
0.6289412897667745 
0.1688426445684005 
0.1093989315191675 
-0.9444782212695291 
-0.902012542975714 
0.1818667782412513 
-0.08098699472741415 
0.1410729051226349 
0.5504873981842285 
-0.2234749089139693 
-0.1682219482124921 
0.274654958234072 
-0.2001369393027369 
-0.4520269694964124 
-0.5341074680911679 
0.07068289321630658 
0.05009943334023757 
0.5157641798483119 
-0.1538327952461472 
0.3022764729306305 
-0.3242944477451897 
-0.7597168189564991 
-0.343810209752796 
-1.226008074318981 
-0.7318338130749952 
-0.5351242589095419 
0.9875516403581336 
-0.02696214334563968 
0.1302353523882527 
-0.02212179500775435 
-0.6222205066048936 
-0.3531736425104832 
-1.381194065971728 
-0.568730063992246 
0.04438570505398129 
0.3706359579773756 
0.4956751846311176 
0.2785467396990884 
0.6167913427244929 
-0.2054931075048821 
0.1537833782447571 
-0.6856965730386547 
-0.6100478748328734 
-0.3553592356592219 
0.8788734427818138 
0.4665310348422867 
0.0337646331220587 
-0.12356786304386 
-0.4038777563759213 
-0.385961288026607 
0.1439904144611667 
-0.2297662477651062 
-1.019006302022938 
0.1659206113763212 
-0.03286541815102077 
-0.2394248788716844 
-0.0006600674151429897 
0.05463482247462315 
0.01075063999560438 
-0.02694889234764102 
-0.02219618882783912 
-0.4926197133772012 
0.3656903202194969 
-0.4790906589224213 
-0.2170856678152766 
0.2189675141625477 
-0.5434386749801152 
-0.7178524154631406 
0.4102591491426211 
-0.01814155141464719 
-0.1345127158806994 
0.2414815703560335 
0.04008657908227023 
0.4124682862720539 
-0.2491599909217175 
-1.19560000921059 
-0.0817866401651947 
0.2576766081741649 
0.0458803305563706 
-0.2449073786425407 
0.6408296454701979 
0.09201562258792728 
0.4721718296243094 
0.8298914370575358 
-0.2465009464668897 
-0.8606722351016253 
-1.005547170827313 
-0.2573488831723361 
-0.397503852122382 
0.5001659115599775 
0.4444491840509025 
0.2946174692315476 
0.627191300977988 
-0.04056570979560715 
-0.9883434687832779 
-0.5859241563168214 
-0.6272206514011203 
-0.0610295285479564 
0.8054274979124864 
0.1884213086783208 
0.9315764097214896 
0.3811832305223693 
-0.4669141089603315 
-0.5618305440200043 
-0.9944844592639941 
-0.7124531287789223 
-0.1165122453551174 
1.004635024041927 
0.06962889646405021 
0.4806391184269051 
-0.1046892889169596 
-0.3784826115871048 
-0.6308399789482917 
-0.436534665652353 
-0.4344071256620974 
-0.5110583435596928 
0.8676996338788566 
0.4799263007026378 
0.474099511371329 
0.6050440513231641 
0.01832535779615936 
-0.09679509216503447 
-0.1594689406330587 
-0.06705354850252274 
-0.9655916939662071 
-0.6194972066049083 
-0.3018676328172285 
-0.1658931639555249 
-0.197957900538751 
0.1507530837576146 
0.008834464531202534 
0.4303676844956763 
0.5103925255351009 
-0.3591709701241456 
-0.1483102388962703 
-0.7587555863521963 
-0.4302861742710801 
-0.5248924023072347 
-0.3407228892579476 
0.2960142128373818 
1.058332336848806 
0.4023153934975058 
-0.3274356004263785 
0.1858333091826483 
0.2399929712820859 
0.1598558709208879 
0.01064142438636828 
-0.1452942267702517 
-0.1054080565136726 
-0.4148895839450636 
0.07454937783960904 
-0.1317992148583133 
0.1258530741926378 
0.5576419922941667 
0.3120751193237019 
-0.02826990107992891 
-0.1491617936257531 
0.1522952213105959 
-0.7232821761822916 
-0.4991728026308338 
-0.2836271105882777 
0.6374596992596229 
0.4800058223737388 
-0.2821129799957386 
0.21791828143963 
-0.2000924699019923 
-0.1671050038411945 
-0.7198533859126149 
-0.1875544005156739 
0.02031227603753487 
1.220346803734981 
0.2221240881157126 
-0.04938104999062497 
0.1526293841553535 
-0.06134256688680681 
-0.6821708412083939 
-0.6517146970707121 
-0.505240567098757 
0.234562152409533 
1.323693910646691 
0.1075230834561635 
0.3663464600139669 
0.2642716575338142 
-0.0704979723051655 
0.1578243948899766 
-0.8365510034330398 
-0.3734667147947932 
-0.02841340232465175 
0.9858148197645935 
0.1086644560298355 
-0.4020341022527102 
0.6321062947684767 
-0.1679806406891997 
0.2727177916954211 
0.0162659413082993 
-0.08462226989388176 
-0.3335438716929731 
0.01311110480309123 
-0.4277022534623043 
0.4409594014067912 
-0.08015367356472967 
-0.5301686950413389 
0.2123412970343745 
0.5561715878316161 
0.206401158428179 
-0.2578342530789703 
-0.3355823956973829 
-0.2599471478994702 
-0.07808666691867358 
-0.2934994686573168 
-0.6325881083730522 
-0.005809204385130894 
0.07624699870847787 
0.07320162597257258 
-0.1009234401359317 
-0.01476543590843468 
-0.6604926026797328 
0.8210837306861815 
-0.1409586204466569 
-0.07786378376480975 
-0.2297292239286802 
0.5119187753892279 
-0.04483414579000355 
-0.1340288978622072 
0.4902873040417584 
0.2176535616253283 
0.3268641837009602 
0.2992444080146552 
-0.1650511216792058 
-0.859993736122419 
-0.590257487203249 
-0.6660221168401794 
-0.493218030707164 
0.326876000560286 
0.6426868282253708 
0.2559389076240083 
0.1157619321986755 
0.1806574597525753 
-0.2354420848703468 
-0.4879247639414911 
-0.09530612880515327 
0.1418435493490657 
1.012416991935521 
0.6949832689066457 
0.6990806879224674 
0.481366081537668 
-0.1287248499943259 
-0.7957200701637557 
-0.7044271045972071 
-0.2748026931236072 
0.1725186978961544 
1.106271053824692 
0.2298382459632137 
0.2460026954762912 
-0.2744028779577566 
-0.4433469611272106 
-0.284555313957827 
-0.1572685301576623 
-0.08366214973324659 
-0.2635266864233394 
0.2874979984232036 
0.02055831131346557 
-0.09911094846862992 
-0.1568644149695367 
-0.477404803506867 
0.02703855568763411 
-0.0934533248346761 
0.2458898186044968 
0.09680181634073916 
0.452919808798861 
-0.2408364229327661 
-0.04925672891829191 
-0.2116303809369031 
0.2543363156672885 
0.3352280933787753 
-0.3278802377122652 
0.1589633131600582 
0.4572285577529879 
0.3032650408770656 
-0.4134706620349876 
0.2329733407657534 
-0.09150536511491555 
-0.2667056473425463 
-0.4238368103507731 
-0.06018846556092333 
0.4530808852863529 
-0.002375345338780387 
0.5430446965206962 
-0.008323975450725857 
0.2088038592141147 
0.103420563013633 
-0.02503079780328148 
-0.3991214097040175 
0.3512218953152425 
-0.09492741862232552 
-0.009910562165309358 
0.1390084902540991 
0.3561745687300208 
0.428706703692233 
0.2377874571106263 
-0.8060865421160103 
-0.7105821479137375 
-0.5937477990722331 
-0.3310216375101032 
-0.1846729725636743 
-0.129216255457754 
0.6047271729325745 
0.7835899676940197 
0.1041569429123765 
-0.4952003099534275 
-0.146992204837748 
-1.256476942227601 
-0.4556758490321647 
-0.8428728096891271 
-0.2320531568730585 
0.1410139564227084 
0.6001988924257656 
0.2095111298518727 
-0.2869551605642029 
0.02676075712257668 
0.01722453763954003 
0.2975901670787958 
0.2045733667011572 
0.9383379111849562 
0.3425350118146593 
0.05381609622239211 
-0.1961215133634387 
-0.1964675382876699 
0.1914747776119554 
-0.08381123050656444 
0.290960302763097 
0.4242961862314552 
0.4262713925607335 
0.673438746064424 
-0.4589326493872598 
-0.3253749295775718 
-0.1665115301985614 
-0.05972931182767914 
-0.07770055421462523 
0.09859764916445453 
0.6705207260333707 
0.5894307053015169 
-0.6235504488924422 
-0.1731530716304809 
-0.0343779678701254 
0.3336238318157725 
0.362786619894953 
0.2280188264029009 
0.6230814420413529 
-0.2909166311631096 
-0.1036203530600579 
0.110589003151271 
-0.03027188441316191 
-1.063976488527071 
-0.3192786418572782 
-0.2586019368113495 
0.1058140126173553 
0.5544417028842482 
0.3576912049655326 
0.8555823416977687 
-0.06617882074827292 
-0.2719231102366851 
-0.7250009429633844 
0.2373793494446306 
0.5774099929918866 
0.7299036558906087 
0.8944345245293721 
0.08989377949923728 
0.3945082369372946 
0.1571408236873522 
0.2471427037379925 
-0.2907883196618524 
0.2222014579545956 
0.2030734492620646 
0.5920206840143473 
-0.1984783971165897 
-0.3223030430077468 
0.4215369596493578 
1.18963426766819 
0.4826619146027394 
-0.2350265855116373 
-0.06026985533178136 
-0.1331612199696443 
-0.6240862757465484 
-0.1559995106274298 
-0.2004774210819593 
-0.2244105496775902 
0.6469303616130206 
0.5485489074763346 
0.1725524726228759 
-0.1021664654588323 
0.05211487397005592 
0.1080238179410691 
0.5129768358084641 
-0.3692992885113522 
0.0783328190885363 
0.7591404964895946 
0.02674138386054933 
0.01000282793779984 
-0.1631933512081091 
-0.3244522757855424 
-0.3083854110479863 
0.5109584760787746 
-0.4091288056768426 
0.1251502468733746 
0.2535547218984143 
0.2930442328197252 
0.2869662630708154 
0.4147043464527987 
-0.03731420233083363 
-0.2865670510714886 
-0.09610461002129156 
-0.09472987542716822 
-0.211375275405925 
-0.06784699704753787 
0.137678042369007 
0.1257987543232785 
0.2478762249617783 
0.2763444604889657 
-0.1513154487663461 
-0.1724857815893596 
-0.2430949275950759 
-0.4243871987079924 
-0.3027887501957462 
-1.17005002597898 
-0.9950522536179827 
-0.4482759023986385 
-0.3856332894388234 
0.03127446330028524 
0.09909269243418484 
0.3289092745539188 
0.2675651371809754 
-0.6578734636236139 
-0.9075247711631288 
-0.7018849572945433 
-0.0285351894383014 
0.2902409298584713 
0.4010063837374748 
0.4281532051735717 
-0.0009329021688104866 
0.03610898446652632 
0.1188383975968178 
-0.9333896719522894 
-0.1278414010761091 
-0.1015163029506942 
0.5397074216409887 
0.6449764035976734 
0.9488696805621601 
0.3029532698970966 
-0.4434364456369281 
-0.08594724321223218 
-0.5583642128259133 
-0.3229631061806614 
-0.1833168553784146 
-0.5811048347806025 
0.6618246485185626 
0.06171213409468042 
-0.009968815257103983 
0.4413832885743394 
-0.06680447808109038 
-0.3576229470646113 
0.3833861260802756 
0.4676435523663817 
-0.1851526202029801 
-0.05053979890181243 
0.7730764391660433 
-0.07814964617924582 
0.04390131533870772 
-0.5304373635972478 
-0.6899324124822027 
0.03429115246367069 
0.01593962473507708 
0.3537140788317463 
0.1738024792702044 
0.1312524208757876 
-0.1734883346986558 
0.1058392708917549 
-0.4144086827283093 
-0.2555761828982692 
0.4578633995863726 
0.4112327001037469 
0.3922120885180647 
0.4943661276672093 
-0.03564901370019576 
-0.3306622362020081 
-0.5163477868692242 
-0.6498886204146427 
-0.8507421367543062 
-0.1384924006423912 
0.4393423088796892 
0.2523841334450871 
-0.4994662970902676 
-0.04483356707648865 
-0.5225445532991055 
-0.364599107188926 
-1.62292115107304 
0 
0 
0 
0 
0 
0 
0 
0 
0 
0 
0 
0 
0 
0 
0 
0 
0 
0 
0 
0 
0 
0 
0 
0 
0 
0 
0 
0 
0 
0 
0 
0 
0 
0 
0 
0 
0 
0 
0 
0 
0 
0 
0 
0 
0 
0 
0 
0 
0 
0 
0 
0 
0 
0 
0 
0 
0 
0 
0 
0 
0 
0 
0 
0 
0 
0 
0 
0 
0 
0 
0 
0 
0 
0 
0 
0 
0 
0 
0 
0 
0 
0 
0 
0 
0 
0 
0 
0 
0 
0 
0 
0 
0 
0 
0 
0 
0 
0 
0 
0 
0 
0 
0 
0 
0 
0 
0 
0 
0 
0 
0 
0 
0 
0 
0 
0 
0 
0 
0 
0 
0 
0 
0 
0 
0 
0 
0 
0 
0 
0 
0 
0 
0 
0 
0 
0 
0 
0 
0 
0 
0 
0 
0 
0 
0 
0 
0 
0 
0 
0 
0 
0 
0 
0 
0 
0 
0 
0 
0 
0 
0 
0 
0 
0 
0 
0 
0 
0 
0 
0 
0 
0 
0 
0 
0 
0 
0 
0 
0 
0 
0 
0 
0 
0 
0 
0 
0 
0 
0 
0 
0 
0 
0 
0 
0 
0 
0 
0 
0 
0 
0 
0 
0 
0 
0 
0 
0 
0 
0 
0 
0 
0 
0 
0 
0 
0 
0 
0 
0 
0 
0 
0 
0 
0 
0 
0 
0 
0 
0 
0 
0 
0 
0 
0 
0 
0 
0 
0 
0 
0 
0 
0 
0 
0 
0 
0 
0 
0 
0 
0 
0 
0 
0 
0 
0 
0 
0 
0 
0 
0 
0 
0 
0 
0 
0 
0 
0 
0 
0 
0 
0 
0 
0 
0 
0 
0 
0 
0 
0 
0 
0 
0 
0 
0 
0 
0 
0 
0 
0 
0 
0 
0 
0 
0 
0 
0 
0 
0 
0 
0 
0 
0 
0 
0 
0 
0 
0 
0 
0 
0 
0 
0 
0 
0 
0 
0 
0 
0 
0 
0 
0 
0 
0 
0 
0 
0 
0 
0 
0 
0 
0 
0 
0 
0 
0 
0 
0 
0 
0 
0 
0 
0 
0 
0 
0 
0 
0 
0 
0 
0 
0 
0 
0 
0 
0 
0 
0 
0 
0 
0 
0 
0 
0 
0 
0 
0 
0 
0 
0 
0 
0 
0 
0 
0 
0 
0 
0 
0 
0 
0 
0 
0 
0 
0 
0 
0 
0 
0 
0 
0 
0 
0 
0 
0 
0 
0 
0 
0 
0 
0 
0 
0 
0 
0 
0 
0 
0 
0 
0 
0 
0 
0 
0 
0 
0 
0 
0 
0 
0 
0 
0 
0 
0 
0 
0 
0 
0 
0 
0 
0 
0 
0 
0 
0 
0 
0 
0 
0 
0 
0 
0 
0 
0 
0 
0 
0 
0 
0 
0 
0 
0 
0 
0 
0 
0 
0 
0 
0 
0 
0 
0 
0 
0 
0 
0 
0 
0 
0 
0 
0 
0 
0 
0 
0 
0 
0 
0 
0 
0 
0 
0 
0 
0 
0 
0 
0 
0 
0 
0 
0 
0 
0 
0 
0 
0 
0 
0 
0 
0 
0 
0 
0 
0 
0 
0 
0 
0 
0 
0 
0 
0 
0 
0 
0 
0 
0 
0 
0 
0 
0 
0 
0 
0 
0 
0 
0 
0 
0 
0 
0 
0 
0 
0 
0 
0 
0 
0 
0 
0 
0 
0 
0 
0 
0 
0 
0 
0 
0 
0 
0 
0 
0 
0 
0 
0 
0 
0 
0 
0 
0 
0 
0 
0 
0 
0 
0 
0 
0 
0 
0 
0 
0 
0 
0 
0 
0 
0 
0 
0 
0 
0 
0 
0 
0 
0 
0 
0 
0 
0 
0 
0 
0 
0 
0 
0 
0 
0 
0 
0 
0 
0 
0 
0 
0 
0 
0 
0 
0 
0 
0 
0 
0 
0 
0 
0 
0 
0 
0 
0 
0 
0 
0 
0 
0 
0 
0 
0 
0 
0 
0 
0 
0 
0 
0 
0 
0 
0 
0 
0 
0 
0 
0 
0 
0 
0 
0 
0 
0 
0 
0 
0 
0 
0 
0 
0 
0 
0 
0 
0 
0 
0 
0 
0 
0 
0 
0 
0 
0 
0 
0 
0 
0 
0 
0 
0 
0 
0 
0 
0 
0 
0 
0 
0 
0 
0 
0 
0 
0 
0 
0 
0 
0 
0 
0 
0 
0 
0 
0 
0 
0 
0 
0 
0 
0 
0 
0 
0 
0 
0 
0 
0 
0 
0 
0 
0 
0 
0 
0 
0 
0 
0 
0 
0 
0 
0 
0 
0 
0 
0 
0 
0 
0 
0 
0 
0 
0 
0 
0 
0 
0 
0 
0 
0 
0 
0 
0 
0 
0 
0 
0 
0 
0 
0 
0 
0 
0 
0 
0 
0 
0 
0 
0 
0 
0 
0 
0 
0 
0 
0 
0 
0 
0 
0 
0 
0 
0 
0 
0 
0 
0 
0 
0 
0 
0 
0 
0 
0 
0 
0 
0 
0 
0 
0 
0 
0 
0 
0 
0 
0 
0 
0 
0 
0 
0 
0 
0 
0 
0 
0 
0 
0 
0 
0 
0 
0 
0 
0 
0 
0 
0 
0 
0 
0 
0 
0 
0 
0 
0 
0 
0 
0 
0 
0 
0 
0 
0 
0 
0 
0 
0 
0 
0 
0 
0 
0 
0 
